Language model created by QuickLM on Mon Nov 10 15:25:19 EST 2014
Copyright (c) 1996-2010 Carnegie Mellon University and Alexander I. Rudnicky

The model is in standard ARPA format, designed by Doug Paul while he was at MITRE.

The code that was used to produce this language model is available in Open Source.
Please visit http://www.speech.cs.cmu.edu/tools/ for more information

The (fixed) discount mass is 0.5. The backoffs are computed using the ratio method.
This model based on a corpus of 20 sentences and 24 words

\data\
ngram 1=24
ngram 2=42
ngram 3=31

\1-grams:
-0.8513 </s> -0.3010
-0.8513 <s> -0.2351
-2.1523 BABY -0.2351
-2.1523 BACK -0.2351
-2.1523 BEAUTIFUL -0.2351
-2.1523 CIRRUS -0.2351
-2.1523 DOWN -0.2351
-2.1523 ENERGY -0.2351
-2.1523 FORWARD -0.2351
-2.1523 FULL -0.2949
-2.1523 HALF -0.2949
-2.1523 HALT -0.2351
-2.1523 LEFT -0.2351
-2.1523 NEVER -0.2351
-2.1523 PAUSE -0.2351
-1.2492 PLAY -0.2094
-2.1523 RECURRING -0.2351
-2.1523 RIGHT -0.2351
-2.1523 SILVER -0.2351
-1.8513 SPEED -0.2351
-2.1523 STOP -0.2351
-2.1523 UNPAUSE -0.2351
-2.1523 UP -0.2351
-1.8513 VOLUME -0.2949

\2-grams:
-1.6021 <s> BACK 0.0000
-1.6021 <s> FORWARD 0.0000
-1.6021 <s> FULL 0.0000
-1.6021 <s> HALF 0.0000
-1.6021 <s> HALT 0.0000
-1.6021 <s> LEFT 0.0000
-1.6021 <s> PAUSE 0.0000
-0.6990 <s> PLAY 0.0000
-1.6021 <s> RIGHT 0.0000
-1.6021 <s> STOP 0.0000
-1.6021 <s> UNPAUSE 0.0000
-1.3010 <s> VOLUME 0.0000
-0.3010 BABY </s> -0.3010
-0.3010 BACK </s> -0.3010
-0.3010 BEAUTIFUL </s> -0.3010
-0.3010 CIRRUS </s> -0.3010
-0.3010 DOWN </s> -0.3010
-0.3010 ENERGY </s> -0.3010
-0.3010 FORWARD </s> -0.3010
-0.3010 FULL SPEED 0.0000
-0.3010 HALF SPEED 0.0000
-0.3010 HALT </s> -0.3010
-0.3010 LEFT </s> -0.3010
-0.3010 NEVER </s> -0.3010
-0.3010 PAUSE </s> -0.3010
-1.2041 PLAY </s> -0.3010
-1.2041 PLAY BABY 0.0000
-1.2041 PLAY BEAUTIFUL 0.0000
-1.2041 PLAY CIRRUS 0.0000
-1.2041 PLAY ENERGY 0.0000
-1.2041 PLAY NEVER 0.0000
-1.2041 PLAY RECURRING 0.0000
-1.2041 PLAY SILVER 0.0000
-0.3010 RECURRING </s> -0.3010
-0.3010 RIGHT </s> -0.3010
-0.3010 SILVER </s> -0.3010
-0.3010 SPEED </s> -0.3010
-0.3010 STOP </s> -0.3010
-0.3010 UNPAUSE </s> -0.3010
-0.3010 UP </s> -0.3010
-0.6021 VOLUME DOWN 0.0000
-0.6021 VOLUME UP 0.0000

\3-grams:
-0.3010 <s> BACK </s>
-0.3010 <s> FORWARD </s>
-0.3010 <s> FULL SPEED
-0.3010 <s> HALF SPEED
-0.3010 <s> HALT </s>
-0.3010 <s> LEFT </s>
-0.3010 <s> PAUSE </s>
-1.2041 <s> PLAY </s>
-1.2041 <s> PLAY BABY
-1.2041 <s> PLAY BEAUTIFUL
-1.2041 <s> PLAY CIRRUS
-1.2041 <s> PLAY ENERGY
-1.2041 <s> PLAY NEVER
-1.2041 <s> PLAY RECURRING
-1.2041 <s> PLAY SILVER
-0.3010 <s> RIGHT </s>
-0.3010 <s> STOP </s>
-0.3010 <s> UNPAUSE </s>
-0.6021 <s> VOLUME DOWN
-0.6021 <s> VOLUME UP
-0.3010 FULL SPEED </s>
-0.3010 HALF SPEED </s>
-0.3010 PLAY BABY </s>
-0.3010 PLAY BEAUTIFUL </s>
-0.3010 PLAY CIRRUS </s>
-0.3010 PLAY ENERGY </s>
-0.3010 PLAY NEVER </s>
-0.3010 PLAY RECURRING </s>
-0.3010 PLAY SILVER </s>
-0.3010 VOLUME DOWN </s>
-0.3010 VOLUME UP </s>

\end\
