Language model created by QuickLM on Fri Nov  7 14:51:17 EST 2014
Copyright (c) 1996-2010 Carnegie Mellon University and Alexander I. Rudnicky

The model is in standard ARPA format, designed by Doug Paul while he was at MITRE.

The code that was used to produce this language model is available in Open Source.
Please visit http://www.speech.cs.cmu.edu/tools/ for more information

The (fixed) discount mass is 0.5. The backoffs are computed using the ratio method.
This model based on a corpus of 19 sentences and 19 words

\data\
ngram 1=19
ngram 2=36
ngram 3=28

\1-grams:
-0.8418 </s> -0.3010
-0.8418 <s> -0.2139
-1.8195 BACK -0.2335
-1.8195 BACKWARD -0.2335
-2.1206 DOWN -0.2335
-1.8195 FORWARD -0.2335
-2.1206 FULL -0.2944
-2.1206 HALF -0.2944
-2.1206 HALT -0.2335
-1.8195 LEFT -0.2335
-1.4216 MOVE -0.2668
-2.1206 PAUSE -0.2335
-2.1206 PLAY -0.2335
-1.8195 RIGHT -0.2335
-1.8195 SPEED -0.2335
-2.1206 STOP -0.2335
-2.1206 UNPAUSE -0.2335
-2.1206 UP -0.2335
-1.8195 VOLUME -0.2944

\2-grams:
-1.5798 <s> BACK 0.0000
-1.5798 <s> BACKWARD 0.0000
-1.5798 <s> FORWARD 0.0000
-1.5798 <s> FULL 0.0000
-1.5798 <s> HALF 0.0000
-1.5798 <s> HALT 0.0000
-1.5798 <s> LEFT 0.0000
-0.8808 <s> MOVE 0.0000
-1.5798 <s> PAUSE 0.0000
-1.5798 <s> PLAY 0.0000
-1.5798 <s> RIGHT 0.0000
-1.5798 <s> STOP 0.0000
-1.5798 <s> UNPAUSE 0.0000
-1.2788 <s> VOLUME 0.0000
-0.3010 BACK </s> -0.3010
-0.3010 BACKWARD </s> -0.3010
-0.3010 DOWN </s> -0.3010
-0.3010 FORWARD </s> -0.3010
-0.3010 FULL SPEED 0.0000
-0.3010 HALF SPEED 0.0000
-0.3010 HALT </s> -0.3010
-0.3010 LEFT </s> -0.3010
-1.0000 MOVE BACK 0.0000
-1.0000 MOVE BACKWARD 0.0000
-1.0000 MOVE FORWARD 0.0000
-1.0000 MOVE LEFT 0.0000
-1.0000 MOVE RIGHT 0.0000
-0.3010 PAUSE </s> -0.3010
-0.3010 PLAY </s> -0.3010
-0.3010 RIGHT </s> -0.3010
-0.3010 SPEED </s> -0.3010
-0.3010 STOP </s> -0.3010
-0.3010 UNPAUSE </s> -0.3010
-0.3010 UP </s> -0.3010
-0.6021 VOLUME DOWN 0.0000
-0.6021 VOLUME UP 0.0000

\3-grams:
-0.3010 <s> BACK </s>
-0.3010 <s> BACKWARD </s>
-0.3010 <s> FORWARD </s>
-0.3010 <s> FULL SPEED
-0.3010 <s> HALF SPEED
-0.3010 <s> HALT </s>
-0.3010 <s> LEFT </s>
-1.0000 <s> MOVE BACK
-1.0000 <s> MOVE BACKWARD
-1.0000 <s> MOVE FORWARD
-1.0000 <s> MOVE LEFT
-1.0000 <s> MOVE RIGHT
-0.3010 <s> PAUSE </s>
-0.3010 <s> PLAY </s>
-0.3010 <s> RIGHT </s>
-0.3010 <s> STOP </s>
-0.3010 <s> UNPAUSE </s>
-0.6021 <s> VOLUME DOWN
-0.6021 <s> VOLUME UP
-0.3010 FULL SPEED </s>
-0.3010 HALF SPEED </s>
-0.3010 MOVE BACK </s>
-0.3010 MOVE BACKWARD </s>
-0.3010 MOVE FORWARD </s>
-0.3010 MOVE LEFT </s>
-0.3010 MOVE RIGHT </s>
-0.3010 VOLUME DOWN </s>
-0.3010 VOLUME UP </s>

\end\
