Language model created by QuickLM on Tue Dec  2 15:57:51 EST 2014
Copyright (c) 1996-2010 Carnegie Mellon University and Alexander I. Rudnicky

The model is in standard ARPA format, designed by Doug Paul while he was at MITRE.

The code that was used to produce this language model is available in Open Source.
Please visit http://www.speech.cs.cmu.edu/tools/ for more information

The (fixed) discount mass is 0.5. The backoffs are computed using the ratio method.
This model based on a corpus of 37 sentences and 38 words

\data\
ngram 1=38
ngram 2=72
ngram 3=62

\1-grams:
-0.8695 </s> -0.3010
-0.8695 <s> -0.2380
-2.4378 AM -0.2978
-2.4378 BABY -0.2380
-2.4378 BEAUTIFUL -0.2380
-1.9606 BEGIN -0.2914
-2.4378 CENTER -0.2380
-2.4378 CHARGING -0.2380
-2.4378 CIRRUS -0.2380
-2.1367 DELETE -0.2380
-2.4378 DOOR -0.2380
-2.4378 DOWN -0.2380
-1.9606 END -0.2914
-2.4378 ENERGY -0.2380
-2.1367 FIESTA -0.2380
-2.1367 FOLLOW -0.2380
-2.4378 GOTO -0.2380
-2.4378 HOME -0.2380
-2.1367 I -0.2380
-2.1367 LIST -0.2898
-2.1367 LOCATION -0.2380
-2.4378 MOVE -0.2946
-2.4378 NEVER -0.2380
-2.4378 PAUSE -0.2380
-1.4835 PLAY -0.2212
-1.9606 POSITION -0.2380
-2.1367 PRINT -0.2898
-2.4378 RECURRING -0.2380
-1.8357 REGION -0.2380
-2.4378 RESET -0.2380
-1.9606 SAVE -0.2882
-2.4378 SILVER -0.2380
-2.4378 STOP -0.2380
-2.4378 THIS -0.2380
-2.4378 UNPAUSE -0.2380
-2.4378 UP -0.2380
-2.1367 VOLUME -0.2978
-2.4378 WHERE -0.2994

\2-grams:
-1.3921 <s> BEGIN 0.0000
-1.8692 <s> CENTER 0.0000
-1.8692 <s> CHARGING 0.0000
-1.5682 <s> DELETE 0.0000
-1.8692 <s> DOOR 0.0000
-1.3921 <s> END 0.0000
-1.8692 <s> GOTO 0.0000
-1.8692 <s> HOME 0.0000
-1.5682 <s> LIST 0.0000
-1.8692 <s> MOVE 0.0000
-1.8692 <s> PAUSE 0.0000
-0.9150 <s> PLAY 0.0000
-1.5682 <s> PRINT 0.0000
-1.8692 <s> RESET 0.0000
-1.3921 <s> SAVE 0.0000
-1.8692 <s> STOP 0.0000
-1.8692 <s> UNPAUSE 0.0000
-1.5682 <s> VOLUME 0.0000
-1.8692 <s> WHERE 0.0000
-0.3010 AM I 0.0000
-0.3010 BABY </s> -0.3010
-0.3010 BEAUTIFUL </s> -0.3010
-0.7782 BEGIN FIESTA 0.0000
-0.7782 BEGIN FOLLOW 0.0000
-0.7782 BEGIN LOCATION 0.0000
-0.3010 CENTER </s> -0.3010
-0.3010 CHARGING </s> -0.3010
-0.3010 CIRRUS </s> -0.3010
-0.3010 DELETE </s> -0.3010
-0.3010 DOOR </s> -0.3010
-0.3010 DOWN </s> -0.3010
-0.7782 END FIESTA 0.0000
-0.7782 END FOLLOW 0.0000
-0.7782 END LOCATION 0.0000
-0.3010 ENERGY </s> -0.3010
-0.3010 FIESTA </s> -0.3010
-0.3010 FOLLOW </s> -0.3010
-0.3010 GOTO </s> -0.3010
-0.3010 HOME </s> -0.3010
-0.3010 I </s> -0.3010
-0.6021 LIST POSITION 0.0000
-0.6021 LIST REGION 0.0000
-0.3010 LOCATION </s> -0.3010
-0.3010 MOVE REGION 0.0000
-0.3010 NEVER </s> -0.3010
-0.3010 PAUSE </s> -0.3010
-1.2553 PLAY </s> -0.3010
-1.2553 PLAY BABY 0.0000
-1.2553 PLAY BEAUTIFUL 0.0000
-1.2553 PLAY CIRRUS 0.0000
-1.2553 PLAY ENERGY 0.0000
-1.2553 PLAY I 0.0000
-1.2553 PLAY NEVER 0.0000
-1.2553 PLAY RECURRING 0.0000
-1.2553 PLAY SILVER 0.0000
-0.3010 POSITION </s> -0.3010
-0.6021 PRINT POSITION 0.0000
-0.6021 PRINT REGION 0.0000
-0.3010 RECURRING </s> -0.3010
-0.3010 REGION </s> -0.3010
-0.3010 RESET </s> -0.3010
-0.7782 SAVE POSITION 0.0000
-0.7782 SAVE REGION 0.0000
-0.7782 SAVE THIS 0.0000
-0.3010 SILVER </s> -0.3010
-0.3010 STOP </s> -0.3010
-0.3010 THIS </s> -0.3010
-0.3010 UNPAUSE </s> -0.3010
-0.3010 UP </s> -0.3010
-0.6021 VOLUME DOWN 0.0000
-0.6021 VOLUME UP 0.0000
-0.3010 WHERE AM 0.0000

\3-grams:
-0.7782 <s> BEGIN FIESTA
-0.7782 <s> BEGIN FOLLOW
-0.7782 <s> BEGIN LOCATION
-0.3010 <s> CENTER </s>
-0.3010 <s> CHARGING </s>
-0.3010 <s> DELETE </s>
-0.3010 <s> DOOR </s>
-0.7782 <s> END FIESTA
-0.7782 <s> END FOLLOW
-0.7782 <s> END LOCATION
-0.3010 <s> GOTO </s>
-0.3010 <s> HOME </s>
-0.6021 <s> LIST POSITION
-0.6021 <s> LIST REGION
-0.3010 <s> MOVE REGION
-0.3010 <s> PAUSE </s>
-1.2553 <s> PLAY </s>
-1.2553 <s> PLAY BABY
-1.2553 <s> PLAY BEAUTIFUL
-1.2553 <s> PLAY CIRRUS
-1.2553 <s> PLAY ENERGY
-1.2553 <s> PLAY I
-1.2553 <s> PLAY NEVER
-1.2553 <s> PLAY RECURRING
-1.2553 <s> PLAY SILVER
-0.6021 <s> PRINT POSITION
-0.6021 <s> PRINT REGION
-0.3010 <s> RESET </s>
-0.7782 <s> SAVE POSITION
-0.7782 <s> SAVE REGION
-0.7782 <s> SAVE THIS
-0.3010 <s> STOP </s>
-0.3010 <s> UNPAUSE </s>
-0.6021 <s> VOLUME DOWN
-0.6021 <s> VOLUME UP
-0.3010 <s> WHERE AM
-0.3010 AM I </s>
-0.3010 BEGIN FIESTA </s>
-0.3010 BEGIN FOLLOW </s>
-0.3010 BEGIN LOCATION </s>
-0.3010 END FIESTA </s>
-0.3010 END FOLLOW </s>
-0.3010 END LOCATION </s>
-0.3010 LIST POSITION </s>
-0.3010 LIST REGION </s>
-0.3010 MOVE REGION </s>
-0.3010 PLAY BABY </s>
-0.3010 PLAY BEAUTIFUL </s>
-0.3010 PLAY CIRRUS </s>
-0.3010 PLAY ENERGY </s>
-0.3010 PLAY I </s>
-0.3010 PLAY NEVER </s>
-0.3010 PLAY RECURRING </s>
-0.3010 PLAY SILVER </s>
-0.3010 PRINT POSITION </s>
-0.3010 PRINT REGION </s>
-0.3010 SAVE POSITION </s>
-0.3010 SAVE REGION </s>
-0.3010 SAVE THIS </s>
-0.3010 VOLUME DOWN </s>
-0.3010 VOLUME UP </s>
-0.3010 WHERE AM I

\end\
